%YAML:1.0
---
cars: !!opencv-object-detector-hog
   winSize: [ 64, 64 ]
   blockSize: [ 16, 16 ]
   blockStride: [ 8, 8 ]
   cellSize: [ 8, 8 ]
   nbins: 9
   derivAperture: 1
   winSigma: 4.
   histogramNormType: 0
   L2HysThreshold: 2.0000000000000001e-01
   gammaCorrection: 1
   nlevels: 64
   signedGradient: 0
   SVMDetector: [ 1.14566833e-01, 7.90337007e-03, -3.79751660e-02,
       -3.38164493e-02, -5.90265542e-02, -2.60971580e-02,
       -2.36918195e-03, -3.58614586e-02, 7.16801286e-02, 4.23439927e-02,
       1.74846184e-02, -2.42069422e-04, 4.30728681e-02, -2.30252948e-02,
       2.37131380e-02, -1.34701759e-03, -5.66338450e-02, 3.34188603e-02,
       7.70096555e-02, -1.14469938e-02, -9.01401043e-04, -2.09085783e-03,
       1.05977049e-02, 1.45101408e-02, -7.28994654e-03, -1.38438155e-03,
       6.96218163e-02, 1.03164446e-02, 4.49242909e-03, 4.50136550e-02,
       2.79581472e-02, -3.48671689e-04, 4.95363139e-02, 2.90787891e-02,
       -1.38151906e-02, 7.80510204e-03, 7.44460672e-02, 3.47992033e-02,
       -6.10849587e-03, -4.87787426e-02, -6.16729297e-02,
       -3.43389399e-02, -2.62345616e-02, -7.81427324e-02, 1.25358813e-02,
       6.29585683e-02, 8.06534588e-02, 3.82906571e-02, 8.96781683e-03,
       -2.31747515e-02, -9.12873540e-03, -1.82327572e-02,
       -8.10076445e-02, -2.83939317e-02, 8.60686228e-02, 5.91586567e-02,
       5.52451089e-02, -1.44843627e-02, -4.40897495e-02, -4.19911789e-03,
       -4.38157469e-03, -3.07215583e-02, 2.42086407e-02, 1.12075493e-01,
       1.71167120e-01, 1.09753013e-01, 5.81707526e-03, -1.90773699e-02,
       1.82821900e-02, -3.87894688e-03, -4.43450660e-02, 2.25559678e-02,
       1.24455735e-01, 1.67750195e-01, 1.10569850e-01, -2.24894769e-02,
       -7.30861425e-02, 2.50236480e-03, 4.04241085e-02, -2.66407691e-02,
       2.12572366e-02, 1.12042859e-01, 1.94834620e-01, 1.68394163e-01,
       5.40419221e-02, 5.09934453e-03, 3.93426716e-02, 5.37852384e-02,
       -2.56456099e-02, 3.02308518e-02, 6.73300549e-02, 1.35518849e-01,
       7.12119490e-02, -3.25393006e-02, -4.63274792e-02, -9.65370890e-03,
       3.60850897e-03, -1.60664394e-02, -1.29922926e-02, -2.84261182e-02,
       4.48288247e-02, 9.32953060e-02, 7.17210444e-03, 4.73255571e-03,
       2.11741962e-02, 9.46633331e-03, -3.25221941e-02, -5.41979037e-02,
       1.68504715e-01, 1.76167324e-01, 1.86463028e-01, 5.32889292e-02,
       -1.06767509e-02, 2.65501458e-02, 4.59124930e-02, 7.85971209e-02,
       1.36845246e-01, 1.24118604e-01, 9.16731283e-02, 5.81057481e-02,
       3.93820778e-02, -1.44675421e-02, 1.99921932e-02, 4.83808629e-02,
       8.17733631e-02, 1.03608623e-01, -7.13084266e-03, -2.06750818e-03,
       6.67162091e-02, 2.49591712e-02, 3.77792530e-02, 5.31834476e-02,
       2.54000556e-02, 2.11399160e-02, 1.80679858e-02, -7.88902044e-02,
       -4.65275981e-02, -2.81931590e-02, 1.97961405e-02, -7.90109299e-03,
       6.77562952e-02, -1.66666042e-02, -1.76278148e-02, -2.33805683e-02,
       1.60900906e-01, 1.43038511e-01, 5.81334196e-02, -7.50557110e-02,
       -2.00330447e-02, 7.65630007e-02, 1.43760070e-01, 1.37699410e-01,
       1.18357405e-01, 1.33637279e-01, 7.32680559e-02, -1.21014109e-02,
       -9.53505263e-02, -2.12898199e-02, 9.49479714e-02, 1.60498038e-01,
       1.07407510e-01, 1.09404102e-01, -1.37479668e-02, 3.53673799e-03,
       4.51387977e-03, -8.90916139e-02, 6.58312161e-03, 3.25779244e-02,
       1.65462252e-02, 5.79170045e-03, -5.19181415e-03, -2.95342077e-02,
       -1.50259798e-02, -7.65431020e-03, -4.65307981e-02,
       -6.57620728e-02, 2.58130189e-02, 1.43106130e-03, -3.22840810e-02,
       -7.81716108e-02, 9.47905555e-02, 1.74270887e-02, -1.08045060e-02,
       -9.43602622e-02, 1.93019640e-02, 1.77057222e-01, 1.15957290e-01,
       4.08287309e-02, 3.39224897e-02, 6.43090531e-03, 6.06882060e-03,
       1.05214519e-02, -1.13724619e-01, -9.80368257e-02, -2.62107681e-02,
       2.18212176e-02, -1.23033617e-02, -3.06395665e-02, -2.15022042e-02,
       2.52691917e-02, 1.77513342e-02, -3.97613570e-02, 9.38601494e-02,
       1.12750538e-01, 6.90327212e-02, -3.52572128e-02, -5.36153466e-02,
       -4.47754115e-02, 2.94092279e-02, 7.58666731e-03, -9.90297412e-04,
       -2.03297045e-02, -2.98597068e-02, 2.60253772e-02, -5.37365340e-02,
       -6.23013154e-02, 4.96358871e-02, 3.66325751e-02, 2.42630299e-02,
       -1.07248425e-01, -4.86055948e-02, 1.31986523e-02, 6.19877428e-02,
       -4.13127244e-03, -1.12035479e-02, 1.30184125e-02, 1.22147864e-02,
       2.00382415e-02, -3.25631499e-02, -6.29327968e-02, 5.91240916e-03,
       4.93446775e-02, 3.15214247e-02, -9.23893694e-03, 2.67008077e-02,
       5.84488958e-02, 5.45513593e-02, 1.48892021e-02, 2.19257232e-02,
       3.82542200e-02, 5.63725717e-02, 9.05201863e-03, -2.92321499e-02,
       8.75647366e-03, 3.39559987e-02, 4.18833196e-02, 5.89243732e-02,
       -1.03080655e-02, 1.01204133e-02, 3.24117169e-02, 4.64029461e-02,
       -2.05560327e-02, 4.61762957e-02, -2.13047210e-02, -1.96280200e-02,
       1.72968884e-03, 5.28341252e-03, -7.64779421e-03, -6.37714565e-03,
       -1.41143072e-02, 4.20404486e-02, 1.29437586e-02, -7.24059064e-03,
       4.68225889e-02, 2.79313382e-02, 1.46750156e-02, 3.55399325e-02,
       -5.08260215e-03, -3.95662300e-02, -3.49385142e-02, 7.58864880e-02,
       -1.80376749e-02, -3.25747058e-02, 3.45660895e-02, -3.00800148e-03,
       -3.89215164e-02, -1.04656164e-02, -1.19581176e-02, 5.61576262e-02,
       6.13135882e-02, -1.28966905e-02, -6.52811024e-03, 2.19412297e-02,
       5.25654177e-04, 4.20902334e-02, 2.11264715e-02, -4.72363346e-04,
       5.89228980e-02, 9.40984711e-02, 3.70117687e-02, 4.19375449e-02,
       3.62277566e-03, 2.53465753e-02, -1.89498980e-02, -3.70593779e-02,
       -6.24269880e-02, 9.19495523e-03, 6.25571012e-02, 3.17837112e-02,
       4.50172313e-02, 3.72634232e-02, 1.09340725e-02, -2.06119437e-02,
       -3.87859866e-02, -5.87600097e-02, 2.35093548e-03, 1.01578034e-01,
       1.06518297e-02, -1.47413341e-02, 1.51049178e-02, 3.48644443e-02,
       -2.44769803e-03, -3.35978195e-02, -5.87117784e-02, 3.11139785e-02,
       4.45398875e-02, -2.53803376e-02, -3.86845581e-02, 4.09562178e-02,
       5.03180409e-03, -2.68110428e-02, -3.19386497e-02, -5.66818826e-02,
       -1.30125936e-02, -5.54266712e-03, 4.01817746e-02, 3.32023762e-02,
       -2.87809353e-02, -2.95515489e-02, -2.12357473e-03,
       -5.77160390e-03, -3.55415605e-02, -6.21101037e-02,
       -7.69276079e-03, 6.63516447e-02, 9.12702382e-02, 6.42041415e-02,
       5.22599109e-02, 2.97309496e-02, -5.92809124e-03, -2.58664750e-02,
       -4.41905931e-02, 2.27243006e-02, -3.07945651e-03, 1.11425407e-02,
       -2.46818215e-02, -5.67931794e-02, -5.73048219e-02,
       -3.35429311e-02, -5.44043668e-02, -4.36367691e-02, 1.95401311e-02,
       7.24809244e-02, 1.11729428e-01, 6.35317862e-02, 1.59725435e-02,
       -2.25941986e-02, -3.81040797e-02, -5.84710389e-02,
       -8.89988616e-03, 3.91244441e-02, 5.45336939e-02, 9.42693353e-02,
       4.97168563e-02, 7.22900406e-02, 2.60735061e-02, -1.07313301e-02,
       1.48415682e-03, 1.99593101e-02, -7.13851722e-03, 4.99485480e-03,
       1.05602909e-02, 1.57519802e-02, 2.32989043e-02, 2.01086476e-02,
       -4.38296460e-02, -2.16207169e-02, -2.75495299e-03, 3.76924612e-02,
       6.17574081e-02, 7.60002658e-02, 4.69048508e-02, 1.54709853e-02,
       6.33731531e-03, -2.99246870e-02, -3.64443846e-02, 4.65563405e-03,
       -5.18322140e-02, -1.86220389e-02, 1.33316843e-02, 3.38473432e-02,
       -5.38311787e-02, 1.69956163e-02, -1.03633637e-02, -3.97837274e-02,
       -4.50733043e-02, 6.83154687e-02, 4.83692028e-02, 2.75428034e-02,
       -8.90950859e-02, 2.18556393e-02, -5.31519353e-02, -3.97964492e-02,
       7.15272222e-03, 3.21624912e-02, -1.48824928e-02, 8.64562951e-03,
       -1.13779400e-02, -4.08739932e-02, -3.80365103e-02,
       -6.41665561e-03, -6.43978566e-02, -3.28085609e-02,
       -5.53755946e-02, -2.33096676e-03, 7.77891930e-03, -2.46965513e-03,
       -7.99126774e-02, -6.26422279e-03, -2.24246904e-02,
       -3.03894971e-02, 3.67140002e-03, -1.19422562e-02, -4.26918454e-02,
       -1.88757144e-02, -6.07382320e-02, 1.03820821e-04, -2.49468349e-02,
       3.01247034e-02, -6.09314777e-02, -5.35159893e-02, -4.23200391e-02,
       3.18579152e-02, 3.14692073e-02, 2.18071565e-02, -9.77198482e-02,
       3.90857793e-02, 3.52127105e-02, 4.16912772e-02, -1.42971454e-02,
       -3.05825192e-02, -1.88020002e-02, 3.12447064e-02, 3.48929502e-03,
       -4.47515622e-02, -2.38133557e-02, -3.53067555e-02, 4.75873426e-02,
       -1.01808039e-02, -6.60736114e-02, 2.31206659e-02, 1.76332667e-02,
       3.77414823e-02, -3.96316424e-02, 1.19532328e-02, 2.66811401e-02,
       5.41131906e-02, 1.86351072e-02, -1.50550632e-02, 1.82219211e-03,
       7.06868665e-03, 1.48865730e-02, 3.39117497e-02, -5.40492386e-02,
       -5.08577600e-02, 2.09271945e-02, -3.85706523e-03, -7.10521638e-02,
       7.73393270e-03, 4.37784269e-02, 2.42936742e-02, -1.93913560e-03,
       1.75895095e-02, 2.77794767e-02, 5.10392003e-02, 1.52067114e-02,
       -6.07103594e-02, -3.70994471e-02, 1.53006939e-02, 1.58603350e-03,
       1.61812510e-02, -9.12127458e-03, -1.90000783e-03, 1.99927092e-02,
       2.95390431e-02, -5.78682534e-02, 4.15057428e-02, 5.15073873e-02,
       4.40758839e-02, 7.79306144e-02, 2.01235320e-02, 4.39523309e-02,
       6.99966773e-02, 4.71136272e-02, -2.62171123e-02, -2.52000727e-02,
       1.97564960e-02, 1.51975201e-02, 6.70912042e-02, 1.96195785e-02,
       3.22936252e-02, 5.53132631e-02, 4.52616327e-02, -2.52393056e-02,
       3.53598483e-02, -3.09845526e-02, -4.73981127e-02, 2.46439092e-02,
       1.08704763e-02, -5.32014780e-02, -1.49338162e-02, -2.24613976e-02,
       5.07427044e-02, 4.44430076e-02, -2.82699615e-02, -5.02306558e-02,
       -2.14961320e-02, 3.36897001e-02, 2.47716792e-02, 2.50270143e-02,
       -8.02764576e-03, 7.05664009e-02, 5.51532842e-02, -3.78012098e-02,
       -7.31949061e-02, 2.56798677e-02, 2.63512395e-02, 6.08752854e-03,
       8.32253881e-03, -2.79966788e-03, 5.56491502e-02, 4.74306606e-02,
       -3.30736786e-02, -5.29063866e-02, 2.37405822e-02, 3.84967886e-02,
       5.18709198e-02, -3.92234605e-03, -1.63790900e-02, 2.50385609e-02,
       7.90969878e-02, 1.49805453e-02, -2.64404304e-02, -1.60882715e-02,
       8.32628235e-02, -3.38484719e-02, -4.03203592e-02, -3.68422382e-02,
       4.67705019e-02, 6.68874756e-02, -1.47174543e-03, -4.70852740e-02,
       3.51804644e-02, 3.81231196e-02, 1.61228385e-02, -3.77806500e-02,
       -5.26044890e-02, -9.23663937e-03, 2.36872062e-02, -2.54528411e-02,
       -3.67359594e-02, -2.33428390e-03, 7.76169300e-02, -1.81389536e-04,
       -6.64538220e-02, -5.12832478e-02, 2.57300660e-02, 1.79454572e-02,
       -1.54327806e-02, -2.78523173e-02, 3.68287377e-02, 3.02046146e-02,
       5.74264303e-02, -4.11470681e-02, -6.38441369e-02, 4.25124075e-03,
       6.91253766e-02, 1.33020123e-02, -4.98496275e-03, -3.45149972e-02,
       -6.19900227e-03, -5.50642684e-02, -4.18738611e-02,
       -3.84428613e-02, 1.16048530e-02, 1.09553775e-02, -5.20429425e-02,
       1.92543224e-03, 4.16934006e-02, -1.60630370e-04, -4.26398329e-02,
       -4.77882437e-02, -6.20188154e-02, 6.14203606e-03, 1.08823024e-01,
       2.24205106e-02, 4.05219896e-03, -1.87410731e-02, 2.17739884e-02,
       -9.31992568e-03, -3.19108255e-02, -3.83665562e-02, 4.78504896e-02,
       4.57139015e-02, -2.17090435e-02, -2.82973368e-02, 4.69607003e-02,
       -6.34055911e-03, -4.40024063e-02, -3.03896293e-02,
       -4.93979864e-02, 1.60717554e-02, 2.57594008e-02, -1.23011274e-02,
       2.22155880e-02, 1.55150564e-02, 6.43733814e-02, 1.29652694e-02,
       -1.39399143e-02, -1.17166406e-02, 3.54094687e-03, -2.31086407e-02,
       -2.29969900e-02, 1.20365294e-02, -1.88216195e-02, -2.57900003e-02,
       2.84844525e-02, -1.68382879e-02, -2.12315917e-02, -5.66433631e-02,
       2.22174600e-02, -2.73064827e-04, 2.65308972e-02, 4.68239486e-02,
       2.44366601e-02, -2.49158815e-02, -3.05370451e-03, -5.69575140e-03,
       3.22284661e-02, 9.64943320e-03, 3.44760232e-02, 1.43146990e-02,
       6.11510649e-02, -2.19390504e-02, 6.46795658e-03, -4.00274806e-02,
       2.38161981e-02, 5.57235349e-03, -7.81539269e-03, -7.14182016e-03,
       -3.62402461e-02, -1.15970790e-01, 2.93676425e-02, 8.11889023e-03,
       3.07552260e-03, 2.30348632e-02, 7.63757853e-03, -1.81606021e-02,
       -2.09468100e-02, -7.78893009e-02, -6.66274205e-02, 3.33879478e-02,
       5.53967850e-03, -6.84035718e-02, -8.53857305e-03, 9.88268387e-03,
       4.44615334e-02, 7.53643282e-04, -4.37426828e-02, -3.65022058e-03,
       2.76737995e-02, 3.14445421e-02, -1.50637552e-02, 4.40190956e-02,
       6.76167309e-02, -4.22358625e-02, -4.04134355e-02, -9.03192610e-02,
       -3.69221950e-03, 3.70482057e-02, -3.14892456e-02, -9.25836936e-02,
       1.19446181e-02, 9.17300396e-03, 2.35462654e-02, 1.95558630e-02,
       2.07306705e-02, -9.26634148e-02, 8.34128633e-02, 8.97382945e-03,
       2.71647749e-03, 2.63316110e-02, -2.04272978e-02, 1.04999719e-02,
       1.91309433e-02, 5.06736822e-02, 4.40950133e-03, 3.61234508e-02,
       -2.89610326e-02, -2.64300853e-02, -1.43500138e-02,
       -4.80277054e-02, -5.13271801e-02, -3.06427814e-02,
       -1.03022093e-02, -5.16549908e-02, 8.58319402e-02, 2.55507766e-03,
       -3.95571999e-02, 1.49498144e-02, -3.22159529e-02, -4.66536954e-02,
       -3.82688195e-02, -5.30016469e-03, 5.17811440e-02, 4.27871421e-02,
       -4.03300188e-02, -4.27795276e-02, -2.91728303e-02,
       -5.15768528e-02, 1.98284592e-02, 1.24352090e-02, 2.08599027e-03,
       -1.04103032e-02, 8.24224129e-02, 1.89864002e-02, 3.81590705e-03,
       -8.77011381e-03, -4.12830897e-02, -4.29119095e-02,
       -1.16864557e-03, 2.63381284e-03, -4.50562034e-03, 6.87832534e-02,
       2.24271417e-03, 4.90459800e-03, -7.16322334e-03, -4.74858508e-02,
       -1.54980104e-02, 2.38878210e-03, -3.54869589e-02, -1.36841685e-02,
       3.67517918e-02, 5.94321825e-02, -2.53096875e-02, -1.23246741e-02,
       -2.69098748e-02, -1.74607337e-02, 2.38932204e-02, -1.63701940e-02,
       8.37260857e-03, 1.73402559e-02, 2.73703318e-03, -2.76183002e-02,
       1.09954719e-02, -3.70540321e-02, 6.91012889e-02, -1.37010450e-02,
       -6.00859560e-02, -1.71175804e-02, 2.31774393e-02, 1.59786195e-02,
       -1.65849142e-02, -2.56768651e-02, 5.58529496e-02, 5.13830371e-02,
       -3.85718420e-02, -3.16441581e-02, -3.09556117e-03, 5.36013655e-02,
       5.03750257e-02, -1.46207651e-02, -1.79581530e-02, 6.14614831e-03,
       6.94145784e-02, 2.43749265e-02, -8.86043813e-03, -8.07739329e-04,
       -3.07611283e-03, 2.98738945e-02, -3.17112990e-02, -2.72296518e-02,
       6.30003065e-02, 2.46300362e-02, -2.14410331e-02, -8.25947616e-03,
       1.63763776e-04, 6.05879538e-03, 3.08835525e-02, -1.98237784e-02,
       -2.43771635e-02, 2.76997462e-02, 2.33481824e-02, -5.74631728e-02,
       -4.65660915e-02, -1.79433711e-02, 1.10943139e-01, 1.01730507e-02,
       -8.14338624e-02, -5.14779352e-02, 3.40424366e-02, 6.07699575e-03,
       -2.79833116e-02, -7.00817630e-03, 7.80478567e-02, 1.45801425e-01,
       6.97408468e-02, -5.82054071e-02, -6.21283203e-02, -2.26769364e-03,
       2.03087535e-02, -4.53156754e-02, -1.34609677e-02, -4.33288142e-02,
       7.72232562e-02, 1.42557016e-02, -5.93858659e-02, -3.81073281e-02,
       3.11456416e-02, -2.72927282e-04, -3.95797752e-02, -9.68366209e-03,
       8.08311626e-02, 6.91336244e-02, 5.79760671e-02, -6.14402108e-02,
       -5.13603017e-02, -2.53517590e-02, 9.73317176e-02, 4.94190045e-02,
       4.08445336e-02, -1.24463737e-02, 5.73220253e-02, 1.70358457e-02,
       -8.00544675e-03, -2.07103528e-02, 4.16444167e-02, 5.18318489e-02,
       -9.89119755e-04, -1.57359801e-02, -2.71373205e-02,
       -3.50968257e-05, -5.71045233e-03, 1.72860492e-02, -3.78484465e-02,
       -4.40020161e-03, 3.10240705e-02, -1.03822947e-02, 1.67256724e-02,
       2.80421693e-02, 3.15750465e-02, 4.07532118e-02, -1.29562384e-02,
       -9.61695053e-03, 1.32372053e-02, -2.59411950e-02, -5.42344339e-02,
       -2.23209951e-02, -1.47049297e-02, -2.67895474e-03, 3.44458446e-02,
       2.20148601e-02, -2.53521781e-02, 8.72159936e-03, 3.49818394e-02,
       8.58299973e-05, 2.24563107e-02, 3.47883254e-02, 4.80965860e-02,
       -4.80466858e-02, -1.01953391e-02, -1.15847345e-02, 4.19687629e-02,
       -1.68990083e-02, 3.74571490e-03, 2.62267347e-02, 1.49687985e-02,
       5.54256421e-03, -7.52803450e-03, -4.92621288e-02, -1.25812925e-02,
       -1.19202910e-02, 3.49045992e-02, -4.73242858e-03, 1.78875551e-02,
       -1.21640544e-02, 2.28560716e-02, 3.39839421e-02, -2.25078128e-02,
       4.93019167e-03, 6.13187961e-02, 1.27625102e-02, 2.86466684e-02,
       2.65155639e-02, -1.23277809e-02, -6.15686215e-02, 2.91902851e-02,
       -5.30631170e-02, 1.11596128e-02, 1.56004298e-02, 7.03269290e-03,
       -8.63575283e-03, -2.92852148e-02, -3.12300473e-02, 5.34854941e-02,
       8.10384005e-03, -2.18100306e-02, 2.94976085e-02, 2.66203620e-02,
       -3.81494500e-02, -3.61373574e-02, -5.65181524e-02,
       -2.45459117e-02, 5.14957383e-02, -6.67739138e-02, -8.49624425e-02,
       4.86492785e-03, -6.90811407e-03, 4.26200626e-04, 5.31389425e-03,
       8.77821445e-03, -4.74360492e-03, 3.52246724e-02, -8.51042755e-03,
       -3.02584786e-02, 2.73344144e-02, 1.55691672e-02, -3.72612141e-02,
       -2.33766362e-02, -7.28973970e-02, -2.45181564e-02, 2.07433421e-02,
       -3.54125202e-02, -2.49236077e-02, 1.44707533e-02, -1.55162308e-02,
       -5.98600283e-02, -2.28944905e-02, -9.00895987e-03,
       -2.38085631e-02, 1.34615108e-01, -3.55475433e-02, -5.51627092e-02,
       5.06427791e-03, -3.72138582e-02, -7.91667476e-02, -4.35890444e-02,
       -4.41450439e-02, 1.32360086e-02, 9.32406783e-02, -3.66051961e-03,
       -4.50249501e-02, -3.35468724e-02, -7.57534355e-02,
       -3.28783728e-02, 2.46412791e-02, 9.07854736e-03, 2.88925425e-04,
       9.83478501e-02, -1.33596286e-02, -2.30293330e-02, 2.97188014e-02,
       -3.52742430e-03, -1.05803490e-01, -4.10468206e-02,
       -4.50371839e-02, 6.15493767e-02, 3.25388350e-02, -1.05762761e-02,
       -4.18953076e-02, -3.56958322e-02, -9.12650377e-02,
       -2.80347858e-02, -3.27902846e-04, -1.23163313e-02,
       -2.57982425e-02, 8.89069512e-02, 1.05261356e-02, -2.17201971e-02,
       -1.02402736e-03, -2.72584911e-02, -1.71599034e-02, 1.18821170e-02,
       -2.38183271e-02, -3.28301899e-02, 9.15670618e-02, -1.30796218e-02,
       -5.97193884e-03, 2.27691978e-02, -2.33011879e-02, -3.46792378e-02,
       -6.24848949e-03, 6.69452967e-03, 1.30708597e-03, 1.44938910e-02,
       -4.78945412e-02, -2.30316818e-02, -2.53879162e-03,
       -3.56559791e-02, -3.61525603e-02, 1.34484284e-02, -4.09617722e-02,
       -2.51722448e-02, 3.21878865e-02, -4.26191650e-02, -1.21304570e-02,
       -2.56716344e-03, -3.15151475e-02, 7.63040856e-02, -1.77229401e-02,
       -2.93082129e-02, -2.98373867e-02, 2.67082304e-02, 2.13959608e-02,
       -4.03737240e-02, -2.68253237e-02, 6.63591847e-02, 4.76194508e-02,
       -1.76981278e-02, -9.56228655e-03, 4.15130379e-03, 2.85922103e-02,
       2.97401305e-02, -5.26779890e-03, -4.00307924e-02, 5.62766343e-02,
       5.94265424e-02, -5.25826253e-02, -5.39030880e-02, -2.99353842e-02,
       8.14871956e-03, 5.88169880e-02, -5.25702611e-02, -4.37331386e-02,
       3.54590937e-02, 1.92976359e-03, -3.04246880e-02, -3.60190086e-02,
       -8.47837795e-03, 1.47621334e-02, 6.51780143e-02, -2.13802103e-02,
       -4.49351408e-02, 5.55061083e-03, 3.78074981e-02, -1.56106157e-02,
       3.15037370e-03, -8.34021531e-03, 8.50383416e-02, 7.95020070e-03,
       -5.76008484e-02, -6.42427132e-02, 4.16962951e-02, 2.99626328e-02,
       -2.77611986e-02, -8.66297260e-03, 6.22964688e-02, 8.50448832e-02,
       4.89864647e-02, -8.41681287e-02, -5.89796081e-02, 6.79867016e-03,
       -1.44912291e-03, -1.72700491e-02, 3.94173153e-03, -3.52145289e-03,
       7.32602477e-02, 2.66244486e-02, -6.08115755e-02, -8.78667980e-02,
       3.59631563e-03, -1.55697417e-04, -2.86545083e-02, -5.15522137e-02,
       3.49722765e-02, 7.06709549e-03, 5.63110923e-03, -6.11357801e-02,
       -4.46941331e-02, 3.82562913e-02, 1.51084168e-04, -2.67281327e-02,
       -3.25445645e-02, -8.33739992e-03, 4.08732779e-02, 1.97354648e-02,
       -2.15081833e-02, 6.87063206e-03, 1.06061278e-02, -5.29814772e-02,
       -4.62603495e-02, -1.30710350e-02, -1.16781164e-02, 4.24363688e-02,
       4.04614545e-02, 5.11539988e-02, 5.16045988e-02, 2.24882197e-02,
       -3.79770100e-02, -4.67709526e-02, -5.43990359e-02,
       -9.16275904e-02, -1.36760622e-02, -9.01516806e-03,
       -4.93098050e-03, 1.84062067e-02, 3.20040248e-02, -5.49455546e-02,
       -4.67473939e-02, -2.65842639e-02, -9.54978634e-03, 2.30999980e-02,
       6.07025437e-02, 4.99233380e-02, 5.16384430e-02, 2.57128268e-03,
       -1.90184470e-02, -3.02160997e-03, -1.36941485e-02,
       -3.66055816e-02, 6.59476891e-02, 1.96317621e-02, -1.85806230e-02,
       8.48482084e-03, 7.12298276e-03, -2.81192735e-02, -4.56077838e-03,
       -8.43658485e-03, -5.64646795e-02, -2.36653425e-02, 2.78247446e-02,
       -4.18928005e-02, 3.66311893e-02, -1.76951550e-02, -3.57785798e-03,
       3.14348959e-03, -2.15079915e-03, 1.44595029e-02, 3.93245295e-02,
       4.23903428e-02, -2.31094714e-02, -3.97661934e-03, 1.01082521e-02,
       -5.68863600e-02, -1.56056974e-02, -4.95762527e-02,
       -7.15357885e-02, -4.38298061e-02, -5.81629537e-02,
       -8.89036879e-02, -1.18289459e-02, -2.56219022e-02,
       -1.03400080e-02, 7.24520162e-03, 1.52321588e-02, -4.56948951e-03,
       4.32265140e-02, -2.86595523e-02, -1.50602441e-02, 4.32376526e-02,
       1.64537895e-02, 3.91739747e-03, 3.15677673e-02, -3.80692892e-02,
       -5.38675487e-03, 5.03744371e-02, -6.71586394e-02, -2.69457381e-02,
       2.08005439e-02, 7.18256226e-04, -1.32783717e-02, 8.94552842e-03,
       8.14223313e-04, 6.86956482e-05, -2.57267337e-02, -8.75672698e-02,
       -5.82135580e-02, 6.75353827e-03, -4.44015628e-03, 1.49765173e-02,
       2.93089282e-02, -5.15404493e-02, 1.28436461e-02, -6.88617490e-03,
       -1.05237365e-01, -4.53322493e-02, -1.72223225e-02,
       -6.82247197e-03, 2.33608335e-02, 7.57850260e-02, 4.75921184e-02,
       1.78115517e-02, 8.86677876e-02, -2.03254670e-02, -2.39862432e-03,
       4.43878099e-02, 2.78863739e-02, -7.61725232e-02, -3.66020501e-02,
       -4.68620360e-02, 4.87072133e-02, 4.53755185e-02, -2.03317404e-02,
       -3.86868306e-02, -3.31684761e-02, -6.61223456e-02, 2.74924170e-02,
       6.49601594e-02, 3.48783694e-02, 2.52233651e-02, 2.14824770e-02,
       -4.44088876e-03, -2.11814996e-02, -3.03878877e-02, 6.71798643e-03,
       -7.21820965e-02, -5.18463664e-02, -5.84234186e-02, 2.79237852e-02,
       9.49579664e-03, -1.00484146e-02, -2.05666255e-02, -5.96716180e-02,
       -4.25265208e-02, -2.92850733e-02, -5.23957610e-03,
       -4.09403332e-02, 2.37031635e-02, 8.54183435e-02, -6.77673966e-02,
       -1.89991277e-02, -1.41106835e-02, -2.31498051e-02,
       -2.36730594e-02, 3.98963764e-02, -6.82131993e-03, -1.69477873e-02,
       8.87132883e-02, -6.59504980e-02, -2.00502183e-02, -3.34097422e-03,
       -1.85196511e-02, -3.45282070e-02, -1.07261166e-02,
       -2.88352910e-02, -4.32239333e-03, 6.91481605e-02, -3.29181589e-02,
       9.04418901e-03, 1.35542080e-02, -1.60859227e-02, -4.73707393e-02,
       3.76359150e-02, -4.18314859e-02, -2.44736895e-02, 5.16472757e-02,
       -2.95820590e-02, -1.73362847e-02, 8.02764017e-03, -3.30516882e-02,
       7.61523023e-02, -2.08180808e-02, -1.51237091e-02, -6.89444644e-03,
       1.83104072e-02, 4.84345220e-02, -1.02319960e-02, -4.49469201e-02,
       5.84711283e-02, 7.64999306e-03, -1.62636731e-02, -2.93285437e-02,
       -4.10195924e-02, 5.32818437e-02, 4.32594530e-02, -1.83474645e-02,
       -4.62918058e-02, 2.13281363e-02, 3.78615037e-02, 1.18278642e-03,
       -8.41797970e-04, -4.73773759e-03, 4.98845838e-02, 6.18552007e-02,
       2.31286492e-02, -4.09813039e-02, 2.79674344e-02, -2.52885334e-02,
       5.56134293e-03, -6.52380474e-03, -9.60075576e-03, 1.43974312e-02,
       2.84442939e-02, -3.68190147e-02, -5.43322116e-02, 2.07378194e-02,
       1.54824881e-03, -7.36622466e-03, -1.57355928e-04, -4.05949689e-02,
       6.06752113e-02, 2.39501186e-02, -2.39715483e-02, -5.17542921e-02,
       2.28113383e-02, 1.66127551e-02, -4.43069041e-02, -1.61992311e-02,
       -3.09293438e-02, 1.37339002e-02, 3.40227038e-02, -1.04142800e-02,
       1.15757966e-02, 5.18771186e-02, -1.73688643e-02, -4.52638343e-02,
       -1.69580244e-02, -5.04975952e-02, 1.09660598e-02, -6.15689857e-03,
       -1.02308607e-02, -3.46506685e-02, 5.39830551e-02, 2.48193298e-03,
       -4.82503623e-02, -1.72488596e-02, -4.42273133e-02,
       -5.31154238e-02, 3.45040224e-02, 2.11872570e-02, 8.28220695e-02,
       9.30641890e-02, -5.90108074e-02, -7.10118264e-02, -2.38389783e-02,
       -5.40223718e-02, 2.00516079e-02, 1.46048320e-02, 4.93451059e-02,
       5.87559082e-02, 2.37822384e-02, -7.27117956e-02, -6.50229082e-02,
       -3.03685069e-02, -7.79313454e-03, 4.97203954e-02, 5.63320182e-02,
       6.81975782e-02, 3.52598168e-02, -7.27009540e-03, -4.69882526e-02,
       -3.66730131e-02, 5.52398618e-03, -2.51663961e-02, -1.00638969e-02,
       2.75109597e-02, 1.03749573e-01, 7.42479712e-02, 1.67743638e-02,
       -2.32038815e-02, -1.71440095e-02, 1.11912878e-03, 6.21245913e-02,
       5.45579158e-02, 1.05350725e-02, 3.51108797e-02, 6.95233094e-03,
       -7.46237626e-03, 6.14321185e-03, -1.37902275e-02, -1.48232169e-02,
       1.52543876e-02, 8.11375454e-02, 2.67099496e-02, -2.01508887e-02,
       2.96246773e-03, 4.66438197e-02, -3.16056237e-02, -2.55664419e-02,
       -3.06027234e-02, -5.34998216e-02, -1.17719360e-02,
       -5.26953004e-02, -6.26070648e-02, 8.79365206e-03, 2.47098878e-02,
       1.59491058e-02, -3.49162817e-02, 2.56594941e-02, 3.72175053e-02,
       3.50188985e-02, -2.11056005e-02, -4.20694016e-02, -2.99857687e-02,
       3.09383050e-02, -5.98688684e-02, -5.65686449e-02, -1.07117957e-02,
       1.77709069e-02, 4.85251239e-03, -3.00755091e-02, -8.64882097e-02,
       -3.11421789e-02, -2.10744627e-02, 4.88429936e-03, 7.91439880e-03,
       -5.37852477e-03, -4.90008248e-03, -1.42408581e-02,
       -3.66828069e-02, -1.80897359e-02, 2.87849586e-02, 3.95990610e-02,
       3.09711555e-03, 7.54104403e-04, -2.27793269e-02, 5.13658635e-02,
       -6.14291709e-03, -5.52561060e-02, -2.59143189e-02,
       -6.20776415e-03, 1.97085682e-02, -1.98150687e-02, -1.94754801e-03,
       -6.01604406e-04, 1.99000202e-02, 4.25913222e-02, -2.95728985e-02,
       -8.71999469e-03, 2.38534808e-02, 3.09229530e-02, -1.41502852e-02,
       -2.68331915e-02, -3.61863747e-02, 1.57995392e-02, 3.78288398e-03,
       -3.69431339e-02, 2.66236253e-03, 2.76745539e-02, 3.52201089e-02,
       4.19657156e-02, 4.55926955e-02, 6.29682019e-02, 3.69359180e-02,
       -3.93886771e-03, -4.73617157e-03, 6.69712946e-03, -5.03206253e-03,
       4.80082631e-02, -3.66071686e-02, -3.74654271e-02, -1.99465379e-02,
       -8.93729553e-03, 1.21958302e-02, -1.90434419e-02, 1.78798921e-02,
       -4.18919139e-03, 1.75294932e-02, -3.28224665e-03, 5.56531455e-03,
       5.30858226e-02, 1.94305442e-02, 1.39247524e-02, 1.96794067e-02,
       2.29586493e-02, 2.56459862e-02, 1.85723472e-02, -5.24697527e-02,
       -6.12349957e-02, -2.86370423e-02, -3.43754393e-04,
       -2.29604337e-02, -3.43052372e-02, 3.21797840e-02, 4.41101715e-02,
       2.77122762e-02, -2.09399145e-02, 9.98940319e-03, 6.02470106e-03,
       7.60908565e-03, 5.02890944e-02, -1.13715166e-02, 4.26101312e-02,
       2.90159509e-02, 2.54840329e-02, -2.32314095e-02, 6.09075762e-02,
       8.21739808e-03, -1.01908511e-02, 8.61455873e-02, 1.01168267e-02,
       2.60580275e-02, 3.54286097e-02, -2.06308961e-02, -2.12411340e-02,
       2.83508301e-02, 4.85846065e-02, 2.69354377e-02, -1.49990730e-02,
       -2.55316347e-02, 2.66591609e-02, 4.70475405e-02, 3.45931202e-02,
       -2.16542408e-02, 5.88709675e-02, -2.11363845e-02, 3.14886719e-02,
       1.24874962e-02, 1.69876348e-02, 1.39014311e-02, 2.61382982e-02,
       -3.61937955e-02, 5.06923720e-02, 1.21543445e-02, 2.49231234e-02,
       -7.07614049e-03, 2.55762823e-02, 2.02161558e-02, 1.47962272e-02,
       -2.49650870e-02, 4.33866978e-02, 4.05177064e-02, 5.34718437e-03,
       4.60856482e-02, -4.60425770e-04, -6.53230585e-03, 2.80017313e-02,
       8.69427528e-03, 1.88423190e-02, 5.81181124e-02, 7.88057819e-02,
       4.92290361e-03, -2.36820104e-03, -6.85236380e-02, -3.60858105e-02,
       -4.15460020e-02, -4.52195853e-02, -5.60861230e-02, 3.53877023e-02,
       2.50943787e-02, -1.15735503e-02, 1.56129412e-02, -1.77052300e-02,
       -4.88526374e-02, -2.63512619e-02, -1.57157034e-02,
       -1.85019337e-02, 2.14495324e-02, 3.66566190e-03, -4.91963699e-02,
       -1.89446919e-02, -3.47617604e-02, -4.37149871e-03,
       -1.15319248e-02, 1.25486851e-02, 3.94054614e-02, 4.06396650e-02,
       -1.49190403e-03, -2.83584278e-02, -1.20712714e-02,
       -7.92327151e-03, -3.08582019e-02, 2.24653278e-02, 6.50649890e-02,
       1.20098427e-01, 9.01048854e-02, -1.54576432e-02, -7.47525319e-02,
       -4.38582450e-02, -2.58395653e-02, -3.69834565e-02,
       -3.88310850e-02, -1.09328721e-02, -2.19290107e-02, 5.11168838e-02,
       1.64155774e-02, -4.01724987e-02, -2.54074186e-02, 3.40013811e-03,
       -4.01337370e-02, -6.80414075e-03, -7.52143911e-04, 4.02243659e-02,
       9.94333550e-02, -1.68991219e-02, -6.90102112e-03, 2.20675264e-02,
       -2.59269960e-02, -5.33876978e-02, 1.07083768e-02, 1.08289450e-01,
       1.10045761e-01, 5.57342097e-02, -8.36138614e-03, 7.57517200e-03,
       3.33808996e-02, 4.11128663e-02, -1.02329087e-02, 6.81373253e-02,
       5.30317649e-02, 1.64243337e-02, 3.53977107e-03, -1.81362499e-02,
       -4.92241643e-02, 3.30020897e-02, -1.17634395e-02, -5.22265807e-02,
       -7.37064471e-03, 3.96833755e-02, 7.48114139e-02, 4.44912128e-02,
       -3.39372866e-02, -4.85849045e-02, -7.72444438e-03,
       -1.48239899e-02, -4.30372395e-02, 7.28716552e-02, 1.13623619e-01,
       1.16895787e-01, 6.81557953e-02, -3.91334482e-03, -5.04067447e-03,
       3.79793160e-02, 4.78059659e-03, 3.24818939e-02, 4.35094908e-02,
       1.66627299e-02, -1.63747631e-02, -2.93264538e-02, -3.87872159e-02,
       4.68573393e-03, 5.93589656e-02, 2.36172788e-02, -8.30205064e-03,
       1.99526437e-02, -3.47211286e-02, -3.83606181e-02, -4.01547216e-02,
       3.18403207e-02, 3.33234072e-02, 3.92665155e-02, -1.31114759e-02,
       -4.38159443e-02, 6.92933127e-02, 1.32680714e-01, 1.32680774e-01,
       9.35975090e-02, 7.14583993e-02, 5.50689884e-02, 4.96604405e-02,
       1.35571919e-02, -5.91158532e-02, 6.66153282e-02, 1.07729085e-01,
       1.56446710e-01, 1.28528461e-01, -1.35257869e-04, 4.89443019e-02,
       9.06250179e-02, 6.60965890e-02, 3.80671956e-02, 1.70042422e-02,
       1.70790739e-02, 2.56449804e-02, 2.53615323e-02, -2.47321650e-02,
       1.90640092e-02, 5.96348643e-02, 5.61762564e-02, -7.10971747e-03,
       -3.26102898e-02, 1.21689243e-02, 1.41129335e-02, 2.46963389e-02,
       1.28762886e-01, 9.10515338e-02, 1.45861045e-01, 2.86263004e-02,
       -1.15870669e-01, -6.92926953e-03, 5.49080893e-02, 1.36605948e-01,
       1.64707631e-01, 1.06538780e-01, 1.11046165e-01, 1.26407564e-01,
       5.66567183e-02, -8.87752622e-02, -8.67205635e-02, 9.61444713e-03,
       5.19784875e-02, 1.43759340e-01, -2.00631507e-02, 2.72951741e-02,
       1.01564273e-01, 7.81120434e-02, 8.32640380e-02, 6.38262182e-02,
       7.62240291e-02, 4.57244404e-02, 1.60457916e-03, -3.18983681e-02,
       -1.14530306e-02, 1.50856143e-02, 3.67113054e-02, 1.63395014e-02,
       2.29453165e-02, 2.29830556e-02, 4.50284686e-03, 2.40392983e-03,
       1.73625890e-02, 6.00681491e-02, 9.67805833e-02, 6.30042031e-02,
       -5.72965927e-02, -1.38188887e-03, 5.38169034e-02, 3.01574618e-02,
       6.83722347e-02, -6.56334311e-03, -1.05530508e-02, -4.27305289e-02,
       4.68458375e-03, -2.05372889e-02, -5.89013286e-02, -6.35873713e-03,
       -2.09908951e-02, 2.67891623e-02, 2.21619643e-02, 6.06505200e-02,
       5.61500229e-02, -1.02793127e-02, 5.21428026e-02, 3.97485457e-02,
       4.47180830e-02, 3.83760482e-02, 2.64347661e-02, -8.47455673e-03,
       5.76296300e-02, 1.19526731e-02, -1.33299420e-03, 9.47458297e-02,
       8.44653472e-02, 1.98323801e-02, 1.53279733e-02, -2.28052679e-02,
       2.27554273e-02, 1.06090084e-02, 2.19533257e-02, -3.65513004e-02,
       -8.02268535e-02, -5.46109900e-02, -4.48131450e-02,
       -3.20218801e-02, 1.00921914e-02, -4.21583233e-03, 5.91765828e-02,
       -3.38577814e-02, -1.59631111e-02, -2.43896171e-02,
       -3.53785604e-02, -2.54662391e-02, -2.14933325e-02,
       -2.71532661e-03, -2.11877203e+00 ]
