%YAML:1.0
---
cars: !!opencv-object-detector-hog
   winSize: [ 64, 64 ]
   blockSize: [ 16, 16 ]
   blockStride: [ 8, 8 ]
   cellSize: [ 8, 8 ]
   nbins: 9
   derivAperture: 1
   winSigma: 4.
   histogramNormType: 0
   L2HysThreshold: 2.0000000000000001e-01
   gammaCorrection: 1
   nlevels: 64
   signedGradient: 0
   SVMDetector: [ 3.84607203e-02, 5.52356057e-02, 3.93155105e-02,
       3.55151184e-02, -1.92342419e-02, -6.23940164e-03, -5.63418213e-03,
       1.45894215e-02, 1.87707674e-02, 4.65388633e-02, 6.99035227e-02,
       5.11736758e-02, 2.44956315e-02, -1.82380863e-02, -5.87418303e-03,
       -3.87316896e-03, 1.49927353e-02, 2.37840526e-02, 1.16689000e-02,
       7.74134416e-03, -9.21794400e-03, 1.43613368e-02, -2.57496331e-02,
       -5.13141556e-03, -1.68998959e-03, 1.71991959e-02, 7.03241862e-03,
       8.01896956e-03, 2.36639529e-02, 1.14788156e-04, 4.38761991e-03,
       -1.37820169e-02, 5.11582568e-03, -7.18883611e-03, 1.16730621e-02,
       1.32468427e-02, 2.13129316e-02, 4.46456671e-02, 2.88917236e-02,
       1.93221606e-02, 5.79155376e-03, -2.02201903e-02, -1.27894375e-02,
       4.82984167e-03, 1.29849659e-02, 1.44543936e-02, 1.35740107e-02,
       2.18260735e-02, 3.84331048e-02, 1.73557308e-02, -6.66351290e-03,
       8.21969646e-04, 5.37228957e-03, 5.76726627e-03, -1.05242470e-04,
       9.17944033e-03, 3.35355336e-03, 1.37141428e-03, 1.91390770e-03,
       -1.92705949e-03, -2.38930304e-02, -1.00598065e-02, 2.65967031e-03,
       -4.86573158e-03, 1.27681978e-02, 8.40545166e-03, 7.03970902e-03,
       -1.35248655e-03, -1.64410754e-04, -2.19126754e-02,
       -1.97775923e-02, -1.67723428e-02, 9.23620909e-03, 7.66051793e-03,
       8.16875603e-03, 1.33578312e-02, 2.61725131e-02, 3.35709588e-03,
       4.79402603e-04, 4.72542271e-03, 6.11553248e-03, 7.64370849e-03,
       1.62563939e-02, 4.85260319e-03, -1.13756787e-02, -2.73265014e-03,
       -2.39212750e-04, -6.68821903e-03, 2.11058762e-02, 1.07228598e-02,
       1.68145518e-04, 8.84043984e-03, 1.94693729e-03, 1.02874516e-02,
       3.72109711e-02, 8.86912458e-03, -1.47639019e-02, -4.59658261e-03,
       -2.65268027e-03, 1.98527258e-02, -1.29552430e-03, -5.69281075e-03,
       6.00567413e-03, 7.13202590e-03, 9.87433922e-03, -1.57289486e-02,
       4.91102366e-03, 1.67600010e-02, 1.02277584e-02, 1.98423453e-02,
       1.75106451e-02, 2.76403483e-02, 1.33687044e-02, -5.20010758e-03,
       -1.14404717e-02, 1.81985311e-02, 9.93142650e-03, 1.50026269e-02,
       -2.02974258e-03, -1.40115181e-02, 7.32585540e-05, -8.15785490e-03,
       -1.66284456e-03, -1.17682749e-02, 8.41024797e-03, 8.73136427e-03,
       4.08692732e-02, 1.90298185e-02, 2.07293523e-03, 3.66604403e-02,
       1.02651305e-02, 7.84245494e-04, -2.21750122e-02, 1.32224953e-03,
       3.42908315e-02, 2.02262085e-02, 8.20258912e-03, -9.27320961e-03,
       1.18496101e-02, -8.47651158e-03, -2.49348097e-02, -2.95650158e-02,
       -2.06610793e-03, 1.83937922e-02, 2.40529217e-02, -3.48364748e-03,
       -2.31974889e-02, -1.97936464e-02, 5.09576686e-03, 2.03273837e-02,
       -8.73200945e-04, 2.28625070e-02, 2.78483629e-02, 1.68994702e-02,
       -1.05627219e-03, -1.24458745e-02, 6.21345546e-03, 1.64345969e-02,
       -1.60433743e-02, -3.14713307e-02, 2.00765263e-02, 1.71305500e-02,
       1.61877275e-02, -5.85349603e-03, -2.17790082e-02, -2.42373673e-03,
       1.16701536e-02, 2.66274856e-03, -2.36828644e-02, 2.98078731e-03,
       1.52107403e-02, 1.97231164e-03, -1.09322919e-02, -3.29613648e-02,
       5.56226820e-03, 7.76783051e-03, -1.35130417e-02, -3.91024724e-02,
       -8.47486022e-04, 2.24918826e-03, 3.82331805e-03, -1.57230254e-02,
       -1.47529216e-02, 1.95124596e-02, 1.22362562e-02, -1.21966787e-02,
       -3.12688611e-02, 1.35190068e-02, 1.49745895e-02, 5.07065095e-03,
       -9.15023312e-03, -1.62851531e-02, -8.00564012e-04, 5.85607300e-03,
       1.80748571e-02, -1.23091480e-02, 2.54294532e-03, 1.90415103e-02,
       1.74597418e-03, -1.81101467e-02, -3.29645649e-02, 1.52069842e-02,
       3.61466990e-03, -9.55071859e-03, -3.13684158e-02, -1.38867125e-02,
       -2.50836927e-03, 2.03761249e-03, -1.81389134e-02, -2.61362214e-02,
       2.10653199e-03, -2.14683404e-03, 1.58555228e-02, -3.10258102e-02,
       -3.12348604e-02, -3.46427131e-03, 2.24588420e-02, 1.20993350e-02,
       4.70831012e-03, -3.12822801e-03, -1.06852548e-03, 1.08944876e-02,
       -1.53923593e-02, -4.50439937e-03, 3.09204478e-02, 7.89910182e-03,
       -5.45379193e-03, -2.19013132e-02, -1.62935592e-02, 1.55173736e-02,
       3.46649028e-02, 2.24285340e-03, 7.76685867e-03, 1.19355954e-02,
       2.09641475e-02, -5.76467346e-03, -1.06931636e-02, -9.68295056e-03,
       -1.22241331e-02, -3.13606299e-03, -1.89398583e-02,
       -1.56957451e-02, 2.12145075e-02, -6.45473227e-03, -2.96648182e-02,
       -3.93851213e-02, -3.52312662e-02, -5.80694480e-03, 1.01248967e-02,
       -1.73893645e-02, -6.31493004e-03, -4.40487266e-03, 2.22569872e-02,
       1.06709255e-02, -8.24772101e-03, 3.09888236e-02, 9.70372837e-03,
       -7.35958992e-03, -7.26982625e-03, 8.72004870e-03, 9.64436121e-03,
       1.63310282e-02, 6.99234614e-03, 1.05694812e-02, 1.00153154e-02,
       -9.61502269e-03, 2.86417291e-03, -1.16566326e-02, 1.42523246e-02,
       1.22851469e-02, 1.94465723e-02, 1.88100915e-02, 1.33731803e-02,
       2.22312007e-02, 5.57091553e-03, 1.60419047e-02, -1.68155339e-02,
       -6.44405186e-03, 9.93114008e-05, 1.75395980e-02, 1.65363383e-02,
       1.67400744e-02, 1.90263111e-02, -3.12895998e-02, -4.49327286e-03,
       -1.79939643e-02, 5.56924753e-03, 7.93038402e-03, 6.56252028e-03,
       1.69282965e-02, 1.27442488e-02, 1.26064965e-03, 1.49086108e-02,
       -1.19831907e-02, -2.60734838e-02, -8.45392060e-04, 2.95469281e-03,
       9.60410014e-03, 3.24965566e-02, 1.77757423e-02, 1.37435682e-02,
       1.77913215e-02, 4.29560198e-03, -1.02481823e-02, -4.17298434e-04,
       -4.18586947e-04, -5.18085528e-03, 1.14643127e-02, 3.63517390e-03,
       8.59523565e-03, -9.94136184e-03, -3.12380269e-02, -3.72727104e-02,
       -1.10967802e-02, -1.13041336e-02, 1.39780939e-02, 2.12171506e-02,
       4.21961863e-03, 1.19837672e-02, 3.00272857e-03, -6.61203358e-03,
       -1.88576486e-02, 2.75673508e-03, 2.71641091e-03, 1.60928082e-03,
       1.27064064e-02, 1.09749390e-02, 9.86798480e-03, 5.07466048e-02,
       2.16939766e-02, -7.11358525e-03, -4.51680319e-03, -2.56858068e-03,
       9.89013724e-03, -2.98383785e-03, -1.18987253e-02, -1.60857046e-03,
       1.98565479e-02, 1.39012085e-02, -7.04910094e-03, 1.24876981e-03,
       1.03482809e-02, 5.36338240e-03, 7.91750662e-03, 2.27290136e-03,
       6.12631300e-03, 3.15358527e-02, 2.07973439e-02, -4.04700823e-03,
       -3.40323220e-03, -3.00049921e-03, 1.10670943e-02, -1.01247318e-02,
       -2.06028540e-02, -8.52124300e-03, 1.56421110e-03, 2.13195360e-03,
       -1.60376132e-02, -1.02763763e-02, 5.13145933e-03, 3.46080773e-02,
       1.58466864e-02, -8.64756014e-03, 1.81507859e-02, 1.68037042e-02,
       1.43943373e-02, -5.74960141e-03, 3.70025588e-03, 2.99430527e-02,
       2.41296235e-02, 1.39100067e-02, -6.44534873e-03, 1.20054148e-02,
       1.96586316e-03, -4.92648780e-03, -1.73218921e-02, -8.22316483e-03,
       1.15935570e-02, 2.55158842e-02, -2.89995316e-03, -2.49526687e-02,
       1.12297824e-02, -6.87949918e-03, 2.41016853e-03, -1.24844275e-02,
       5.40939579e-03, 2.47122664e-02, 1.36990668e-02, 4.91653220e-04,
       -2.93505900e-02, 4.85726492e-03, -1.87205747e-02, 2.88676616e-04,
       -2.01539639e-02, 1.90493622e-04, 8.52586050e-03, 2.20028143e-02,
       1.14350591e-03, -1.60380937e-02, 3.52653372e-03, 3.06681879e-02,
       4.40427661e-03, -2.13053897e-02, -1.14532607e-03, 1.12543637e-02,
       6.10084692e-03, -2.94332951e-03, -2.91424226e-02, 1.84668112e-03,
       3.23881730e-02, 6.75059948e-03, -2.45679002e-02, 1.85386074e-04,
       -2.10005324e-03, 1.51050426e-02, -4.63597896e-03, -2.69496329e-02,
       1.73797645e-02, 2.59609520e-02, 1.87804457e-02, -3.22936624e-02,
       -5.39867324e-04, 1.89841092e-02, 2.04610033e-03, -1.35758286e-02,
       -4.34470922e-02, 1.18999630e-02, 3.62595320e-02, 2.77209971e-02,
       -2.28482690e-02, -2.27243290e-03, 8.53211526e-03, 1.26299933e-02,
       -6.56422577e-04, -6.88669458e-03, 2.16901619e-02, 4.06266600e-02,
       6.27633883e-03, -1.31747993e-02, 2.86140421e-04, 1.88243818e-02,
       8.39456078e-03, -5.98932803e-03, -5.47728408e-03, 7.77678657e-03,
       2.12619584e-02, 1.00983707e-02, -2.08922047e-02, -1.91345252e-02,
       9.37165786e-03, 1.64453313e-02, -1.22580342e-02, -2.40645315e-02,
       2.13732906e-02, 2.01141834e-02, 1.54942051e-02, -7.88613223e-03,
       -6.29334303e-04, 2.30948869e-02, 1.08568114e-03, -2.20313873e-02,
       -2.35836338e-02, -5.53770037e-03, -1.27530890e-02,
       -1.53377361e-03, -2.99335532e-02, -2.90414728e-02, 3.24924081e-03,
       3.17533165e-02, 2.39277491e-03, 5.71143988e-04, 9.14370827e-03,
       3.64423990e-02, 3.28047434e-03, -1.01394206e-02, -1.08211553e-02,
       2.88491379e-02, 9.78590176e-03, -2.06869654e-02, -2.43832171e-02,
       1.70617452e-04, 2.30513867e-02, 3.61756608e-02, 9.87848826e-03,
       2.33521080e-03, 1.61193814e-02, 6.31035212e-03, -1.82510633e-02,
       -1.06686149e-02, -4.40151402e-04, 4.25096788e-03, 5.05571428e-04,
       -2.25076731e-02, -2.27471069e-02, 7.67908944e-03, -2.35030297e-02,
       -3.45831886e-02, -2.23474372e-02, 8.80320650e-03, 2.51851454e-02,
       4.94256616e-02, 9.66089964e-03, -2.14341972e-02, -1.88559070e-02,
       1.36672780e-02, 1.77343655e-02, 1.29067572e-02, 3.17605771e-02,
       1.82159171e-02, 2.88805459e-02, -6.17729174e-03, -1.73802453e-03,
       -7.44153699e-03, 1.37535138e-02, 1.97590329e-02, 8.08253605e-03,
       2.25494076e-02, -2.30033025e-02, -5.07527729e-03, -7.69860623e-03,
       -5.61790075e-04, 8.30660015e-03, 9.30126570e-03, 2.07554344e-02,
       2.81620156e-02, 5.40134348e-02, 1.71440188e-02, 4.56447899e-02,
       1.53808319e-03, -2.52342178e-03, -3.28116631e-03, 2.57196836e-02,
       4.20508012e-02, 2.61567235e-02, 1.41221667e-02, -1.51556553e-02,
       8.41780193e-03, 3.33718235e-05, -2.55003944e-03, 1.67949740e-02,
       1.76679213e-02, 2.05211993e-02, 4.94890055e-03, 1.34881735e-02,
       4.02491121e-03, -2.61932909e-02, -1.28793679e-02, -1.65495544e-03,
       7.67820654e-03, 2.74748299e-02, 1.73473489e-02, 2.90784775e-03,
       3.36654782e-02, 1.74994040e-02, 1.87873689e-03, -3.14613013e-03,
       2.37847213e-03, 9.16194264e-03, 1.59627851e-02, 2.56709736e-02,
       -1.34175667e-03, 9.80592426e-03, 1.07442373e-02, 1.03463721e-03,
       -8.72566178e-03, -8.51018168e-03, 1.04180519e-02, -8.93300865e-03,
       -1.51354820e-03, -1.28075592e-02, 2.10824497e-02, 2.55765934e-02,
       2.27209013e-02, -1.38821220e-02, -3.97262024e-03, -5.77285280e-03,
       1.36876954e-02, 1.09812776e-02, 2.04694876e-03, 1.47051001e-02,
       5.28379008e-02, 1.55767817e-02, -5.52283134e-03, -4.82966844e-03,
       -2.06112303e-03, 2.36830357e-02, 2.37389631e-03, -1.18069826e-02,
       1.04243802e-02, 1.45529425e-02, 8.87229946e-03, -1.30533110e-02,
       -2.12140474e-03, 1.36080636e-02, -1.34320483e-02, -8.05613305e-03,
       -1.49565898e-02, 7.60427676e-03, 4.00756560e-02, 1.66393742e-02,
       -2.99744979e-02, -1.55797731e-02, -2.00048257e-02, 2.67636199e-02,
       3.56766698e-03, -2.19223630e-02, 7.69696617e-03, 1.89007155e-03,
       1.40635960e-03, -2.32361592e-02, -6.59222575e-03, 1.05364909e-02,
       2.73189954e-02, -2.66045867e-03, -1.85696464e-02, 8.89246166e-03,
       2.31344830e-02, 6.15019398e-03, -2.04956811e-02, 9.66118276e-03,
       3.16483974e-02, 2.53592222e-03, -4.53766994e-03, -2.78668646e-02,
       2.07069423e-03, 1.16574187e-02, 1.28414594e-02, -2.02000681e-02,
       7.47774402e-03, 5.96035924e-03, 3.28772776e-02, -4.38929303e-03,
       -2.51115952e-02, 8.36889911e-03, 1.90065764e-02, -2.41644657e-03,
       -1.72048919e-02, 4.08379594e-03, 3.29041034e-02, -3.52317438e-04,
       -2.85862852e-02, -3.79791521e-02, 1.14140874e-02, 3.04513611e-02,
       1.25441086e-02, -2.24951208e-02, -5.37899742e-03, 5.44858351e-03,
       9.54618119e-03, -9.03848931e-03, -2.24855375e-02, 1.10270884e-02,
       3.27995270e-02, 3.00740190e-02, -2.68025454e-02, 4.91133099e-03,
       1.64633188e-02, 1.67578440e-02, -8.30476731e-03, -2.77621131e-02,
       1.23274345e-02, 3.21066305e-02, 2.95723956e-02, -2.19436288e-02,
       -8.30838643e-03, 1.28756166e-02, 5.60676819e-03, -2.04218179e-02,
       -2.61062067e-02, 3.08189560e-02, 4.19691093e-02, 3.67879122e-02,
       -1.76901892e-02, -6.50507584e-03, 9.16551054e-03, 1.61413457e-02,
       -1.41546857e-02, -3.15615013e-02, 1.01368111e-02, 2.84922216e-02,
       2.26576887e-02, -3.14340591e-02, -9.13999695e-03, 1.10994140e-02,
       1.86751168e-02, -8.51366203e-03, -2.26001386e-02, 1.38840852e-02,
       4.21719253e-02, 3.57095301e-02, 3.77626717e-03, 6.66330196e-03,
       2.98517458e-02, 8.98963492e-03, -1.73494276e-02, -2.04644036e-02,
       -8.30247346e-03, 4.49680630e-03, 1.62795726e-02, -2.56684422e-02,
       -1.92025453e-02, 1.41757336e-02, 2.42032800e-02, -1.24458941e-02,
       -2.09361240e-02, 2.06219777e-02, 2.83831935e-02, 2.38291416e-02,
       -4.67026001e-03, 3.09494440e-03, 2.81295162e-02, 1.08505925e-02,
       -2.83726845e-02, -2.12504491e-02, 7.18066702e-03, 4.71402006e-03,
       1.90886986e-02, -1.50911557e-02, -1.72155257e-02, 1.02419592e-02,
       1.65395737e-02, -1.17116012e-02, -7.87141267e-03, 6.99733500e-05,
       7.35228090e-03, 1.08809648e-02, -1.49973957e-02, -1.92175135e-02,
       1.75318159e-02, -3.74229765e-03, -2.34873928e-02, -1.36017017e-02,
       1.07824598e-02, 3.57449651e-02, 4.88692895e-02, 7.47433258e-03,
       -1.38668735e-02, -8.27734917e-03, 1.64083820e-02, -2.30599884e-02,
       -1.45279933e-02, 8.19984489e-05, 7.62678729e-03, 1.95129067e-02,
       -2.28545861e-03, -1.73710473e-02, 1.55887781e-02, -8.15897062e-03,
       -3.66434492e-02, -2.51909643e-02, -4.59178991e-04, 3.46463062e-02,
       1.42003875e-02, -8.78312625e-03, -3.67619880e-02, -1.44687891e-02,
       -5.14221005e-03, 2.48846901e-03, 2.13641170e-02, 5.43347523e-02,
       2.84884181e-02, 3.73865664e-02, -1.12592885e-02, -6.24098815e-03,
       -8.31576809e-03, 1.69585105e-02, 2.36604549e-02, 1.61467064e-02,
       1.90633535e-02, 1.10182362e-02, 1.88487004e-02, -9.22221038e-03,
       -8.91491957e-03, -5.32926497e-05, -6.67710323e-03,
       -4.20200266e-03, 6.51707267e-03, 4.57567051e-02, 2.08183285e-02,
       4.04963829e-02, -8.46526586e-04, 3.84377851e-03, -5.08621568e-03,
       1.37885343e-02, 5.39762061e-03, 1.17936206e-05, 2.60464381e-02,
       4.08400130e-03, 3.83848250e-02, -1.43594458e-03, 3.65355867e-03,
       7.69862114e-03, 5.16045652e-03, 1.12743387e-02, -1.03554772e-02,
       4.48897341e-03, 3.37150991e-02, -5.00416430e-03, -1.54680852e-02,
       -9.02972091e-03, -4.76584537e-03, -1.90377925e-02,
       -3.78146674e-03, -9.37154423e-03, 8.92851781e-03, 4.07340899e-02,
       1.90369841e-02, -1.02194529e-02, -6.75094221e-03, -1.14331571e-02,
       1.06154336e-03, -3.40425083e-03, -1.91572085e-02, 2.27929223e-02,
       3.63984928e-02, 1.25055034e-02, -1.19102737e-02, 2.64876266e-03,
       3.61225056e-03, -1.53762475e-02, -4.98457160e-03, -2.03633308e-03,
       4.00674902e-02, 4.53941599e-02, 1.64023731e-02, -1.66108692e-03,
       6.27317932e-03, -4.18810220e-03, -2.69130692e-02, -1.30636953e-02,
       -6.65455125e-03, 2.09732559e-02, 6.25009760e-02, 2.22398322e-02,
       -1.00489641e-02, -6.26643142e-03, -2.27515865e-02, 6.08477090e-03,
       -6.65797386e-03, -2.43924093e-02, 2.78715463e-03, 3.81713174e-02,
       -8.50203854e-04, -6.38758997e-03, -1.83950912e-03,
       -4.45998646e-03, -2.20863018e-02, -6.42055413e-03, 4.59717307e-03,
       4.46029492e-02, 6.33511320e-02, 2.05232538e-02, -1.30135231e-04,
       1.71727836e-04, -2.02867351e-02, -7.60641182e-03, -1.01701589e-02,
       -3.13927121e-02, 1.40063660e-02, 2.24056449e-02, 3.37238633e-03,
       2.35632667e-03, 4.64441627e-03, -1.04633337e-02, 4.23755646e-02,
       -4.61557182e-03, -2.84856353e-02, -2.68762186e-03, 2.97600757e-02,
       -8.05993285e-03, 8.02714203e-04, 1.40608456e-02, 3.43711041e-02,
       2.24803798e-02, -2.37681735e-02, -3.26126069e-02, 1.50277531e-02,
       4.19056974e-02, 1.39973015e-02, -1.30951218e-02, 1.36590668e-03,
       2.78930478e-02, 2.07977723e-02, -1.02274176e-02, -4.06600498e-02,
       -4.38388000e-04, 3.99399549e-02, -2.45331856e-03, 3.14906612e-03,
       1.69145428e-02, 2.23505720e-02, 1.23019982e-02, -1.94322877e-02,
       -4.01823558e-02, 5.00832871e-03, 2.53949389e-02, 4.55567148e-03,
       -1.57010518e-02, 5.02918661e-03, 2.82271430e-02, 1.45474691e-02,
       -2.14334931e-02, -3.16814072e-02, 2.35663094e-02, 5.59852831e-02,
       3.33472602e-02, -1.34251192e-02, -1.39544354e-04, 2.23008618e-02,
       1.07656689e-02, -1.60260089e-02, -3.08876541e-02, 1.40253380e-02,
       4.40037586e-02, 3.28972153e-02, -1.62577238e-02, 2.35796295e-04,
       1.81641839e-02, 2.05048714e-02, -7.71857984e-03, -3.26196216e-02,
       1.80018414e-02, 3.25226560e-02, 3.17472294e-02, -1.04605043e-02,
       9.81638441e-04, 2.94771418e-02, 3.37756821e-03, -1.26096923e-02,
       -3.01852450e-02, 2.79943757e-02, 2.57981885e-02, 4.08997722e-02,
       -1.49768842e-02, 7.06036459e-04, 1.02218045e-02, 2.26812884e-02,
       -4.91268281e-03, -1.60267223e-02, 1.33031663e-02, 3.98005433e-02,
       3.13457362e-02, -4.79505584e-03, 4.66840155e-03, 2.84811761e-02,
       8.69156234e-03, -2.06144936e-02, -2.10954864e-02, 6.68326719e-03,
       1.32455267e-02, 2.31301244e-02, -1.19788181e-02, -8.03897344e-03,
       1.24520659e-02, 9.82516445e-03, -8.92276131e-03, -1.24599356e-02,
       3.29349898e-02, 3.01556662e-02, 4.84784953e-02, -1.61252960e-04,
       8.52336176e-03, 1.10622672e-02, 3.37552489e-03, -2.18549743e-02,
       -1.86579879e-02, 1.26084527e-02, 7.36976881e-03, 2.81296298e-02,
       -5.44057507e-03, -2.95697479e-03, 6.50368305e-03, 1.29831508e-02,
       -1.66267511e-02, -1.26909958e-02, 2.27822387e-03, 2.16034371e-02,
       2.39942707e-02, -4.86554811e-03, -1.19307786e-02, 1.35431224e-02,
       -7.59170530e-03, -3.28314640e-02, -2.49031447e-02,
       -3.67046124e-03, 3.63256931e-02, -2.84815789e-03, -2.12394167e-02,
       -3.80115211e-02, -1.15695382e-02, 8.61115102e-03, -1.37337316e-02,
       -7.81289302e-03, 1.44442990e-02, 2.15314329e-02, 3.58084962e-02,
       -4.31862846e-03, -6.71446929e-03, 7.60979205e-03, -2.01899447e-02,
       -2.39844639e-02, -1.73545349e-02, 7.50704901e-03, 5.00571616e-02,
       5.33324946e-03, -3.31928134e-02, -3.88660729e-02, -2.43626907e-02,
       -3.92959500e-03, 5.84243005e-03, 5.87217137e-03, 2.07845941e-02,
       2.27500871e-02, 3.16524692e-02, 1.70639846e-02, 2.88468041e-03,
       3.37263104e-03, 5.07127121e-03, 2.05750437e-03, -3.67611065e-03,
       1.86791271e-02, 1.93724446e-02, 2.81874575e-02, 6.90606842e-03,
       1.50017031e-02, 2.13406477e-02, -9.07350890e-03, -9.88114811e-03,
       -1.85531396e-02, 1.49260694e-02, 8.49584490e-03, 1.00492435e-02,
       2.34821327e-02, 1.18542891e-02, 1.27353929e-02, -4.07883665e-03,
       -1.15474621e-02, -1.62070487e-02, 1.78826731e-02, 5.82315493e-03,
       2.36651991e-02, 3.25919092e-02, 2.58810353e-02, 2.23292578e-02,
       -9.01486911e-03, -2.10438650e-02, -3.00966688e-02, 9.50370636e-03,
       5.08753546e-02, 7.20632635e-03, -1.79547183e-02, 2.85755866e-03,
       9.68244486e-03, -1.35696596e-02, -1.47192245e-02, -1.45246731e-02,
       3.49366479e-02, 5.82571179e-02, 1.17544811e-02, -1.28947152e-02,
       3.75837018e-03, -2.28792848e-03, -1.16735632e-02, -2.61583012e-02,
       -3.68568823e-02, -1.83539087e-04, 1.97951030e-02, 1.02933887e-02,
       8.26394185e-03, 2.40467731e-02, 1.76488981e-02, -1.20517705e-02,
       -1.16306776e-02, -2.41380204e-02, 2.52904501e-02, 3.49685326e-02,
       7.92614836e-03, 1.61888194e-03, 2.52585635e-02, 4.93020611e-03,
       -1.54509135e-02, -1.32483682e-02, -1.04479343e-02, 3.39026637e-02,
       6.79409131e-02, 2.04208940e-02, -6.62086392e-03, 1.90855120e-03,
       -1.52395461e-02, -3.88035155e-03, -9.07934736e-03,
       -2.59886943e-02, 8.25118460e-03, 1.99400838e-02, 9.62816365e-03,
       1.05324155e-03, 6.84775505e-03, 3.74743802e-04, -1.07046301e-02,
       2.22487515e-03, -1.12000294e-02, 3.17431726e-02, 5.30646183e-02,
       2.36756317e-02, -3.24978656e-03, 2.15036739e-02, -6.51366590e-03,
       4.20953939e-03, 9.32329707e-03, -1.44712422e-02, 2.11959686e-02,
       2.53332835e-02, 9.95424762e-03, -1.61150247e-02, 8.93963035e-03,
       9.90876555e-03, 9.20560677e-03, -1.49695985e-02, -3.56236845e-02,
       -3.93301947e-03, 3.76509614e-02, -1.56546745e-03, 6.44679589e-04,
       1.15989875e-02, 1.29793882e-02, -6.97161362e-04, -1.17062228e-02,
       -4.16322611e-02, -6.75572874e-03, 2.51115020e-02, -1.12555288e-02,
       -9.34444740e-03, 1.05375536e-02, 1.71154924e-02, 1.79826990e-02,
       1.33207459e-02, -5.08584967e-03, 2.67643910e-02, 3.33105698e-02,
       8.93302076e-03, -2.28048395e-02, 5.08399494e-03, 2.16387697e-02,
       3.47136665e-04, -2.40794476e-03, -3.00926864e-02, 1.16735743e-02,
       2.87027992e-02, 4.06644447e-03, -1.53375147e-02, 1.14380941e-02,
       5.31487819e-03, 1.24139460e-02, 3.08506517e-03, -2.80227251e-02,
       1.71344634e-02, 4.26079631e-02, 6.37897709e-03, 2.54043262e-03,
       1.67843178e-02, 2.55881473e-02, 7.64610991e-03, -5.21754730e-04,
       -1.21871959e-02, 2.18599644e-02, 3.30778882e-02, 1.24621643e-02,
       -1.59931090e-02, 2.01859442e-03, 8.15479271e-03, 3.53991520e-03,
       4.67016641e-03, -2.88797002e-02, 1.90861151e-02, 3.92990559e-02,
       1.62189342e-02, -3.32882069e-03, 1.86005645e-02, 8.82600993e-03,
       -4.18296363e-03, 6.78526922e-05, -1.44294109e-02, -7.84012862e-03,
       3.07491533e-02, 8.52857076e-04, -1.18768541e-02, 9.28580877e-04,
       -4.06732736e-03, -1.25606649e-03, 2.08057859e-03, 2.45434511e-03,
       3.27300578e-02, 4.49556150e-02, 3.86024453e-02, 5.61440596e-04,
       9.64119751e-03, 3.91133502e-03, -2.48443335e-03, -3.03060515e-03,
       -4.57415124e-03, 2.33134087e-02, 1.79705098e-02, 1.46017820e-02,
       -1.19929332e-02, -6.47002086e-03, 3.34836054e-03, -5.39643504e-03,
       5.42985555e-03, 1.30996099e-02, 1.55207550e-03, 3.98735143e-02,
       1.80395860e-02, 6.03061076e-03, 7.87393562e-03, 1.98210124e-03,
       -1.44212423e-02, -1.26334550e-02, -1.35802682e-02, 4.71926323e-04,
       2.06547491e-02, 1.54526450e-03, -8.93118512e-03, -4.92236530e-03,
       -5.36928978e-03, 8.93248431e-03, -6.57094456e-03, -7.60497898e-03,
       1.95190012e-02, 3.14814039e-02, 2.39827987e-02, -8.45303480e-03,
       -3.50963697e-03, 8.50826502e-03, -2.12000627e-02, -2.15845406e-02,
       -2.01537311e-02, 1.20654507e-02, 5.45217358e-02, 3.27143027e-03,
       -2.53887922e-02, -1.93497315e-02, -1.71239041e-02, 1.63988239e-04,
       -1.53041128e-02, -2.25510001e-02, 2.11206701e-04, 2.34418642e-02,
       8.90877657e-03, -4.88500623e-03, 8.23677401e-04, 2.84633506e-03,
       -2.94990521e-02, -2.91523710e-02, -2.95806509e-02, 3.15643065e-02,
       5.83284162e-02, -1.59715512e-03, -1.42164351e-02, -1.11064222e-02,
       -1.37873031e-02, -4.66984091e-03, -1.80837717e-02,
       -2.45610643e-02, 6.28488464e-03, 2.47271657e-02, 5.81960194e-03,
       8.54170788e-03, 1.93217974e-02, 1.65631436e-02, -2.16911570e-03,
       -1.41658746e-02, -1.97022557e-02, 1.13321776e-02, 1.97794791e-02,
       9.31241550e-03, 2.07892992e-02, 1.53766498e-02, 1.27150817e-02,
       1.33705484e-02, -2.82966555e-03, -8.17060471e-03, 1.26510914e-02,
       -6.66731782e-03, -6.87550521e-03, -4.13411995e-03, 1.73740834e-02,
       2.55763158e-02, 1.06090754e-02, -4.36875597e-03, -1.02858245e-02,
       1.23482496e-02, 1.84006114e-02, 2.95809060e-02, 5.67256054e-03,
       1.00956373e-02, 2.61743162e-02, -8.47471505e-03, -2.54596695e-02,
       -2.91084796e-02, -4.40674322e-03, 9.62644350e-03, -6.32544188e-03,
       1.47484383e-02, 1.77023709e-02, 6.12392277e-03, -3.95783177e-03,
       -1.40620759e-02, -2.67548021e-02, 1.39971757e-02, 2.38846540e-02,
       -5.02812024e-03, 1.24587175e-02, 2.92503797e-02, 1.12954145e-02,
       -2.58505228e-04, -1.50638446e-02, -2.09202077e-02,
       -1.18629704e-03, 1.21475924e-02, 1.74158067e-03, 1.75284166e-02,
       1.93230738e-03, 5.64378826e-03, 4.84407600e-03, -3.29934736e-03,
       -2.99407095e-02, 4.51116776e-03, 9.92246065e-03, -7.33634690e-03,
       1.44329853e-02, 1.45521583e-02, 1.52421016e-02, -1.73786818e-03,
       -1.03228563e-03, -2.12655365e-02, 1.19484980e-02, 4.64971252e-02,
       4.72068414e-03, 2.66232016e-03, 2.36032289e-02, -5.66953095e-03,
       1.67329819e-03, 5.28603839e-03, -1.48464050e-02, 1.85711309e-02,
       2.25066282e-02, 2.39490485e-03, -1.85754262e-02, 4.39479109e-03,
       -1.97813287e-03, 1.83548946e-02, 1.34799629e-02, -1.83044560e-02,
       -6.36938130e-05, 3.20562385e-02, -1.45597449e-02, 2.35447404e-03,
       1.73386037e-02, 1.19891111e-02, 4.57978807e-03, 9.57754347e-03,
       -1.71256959e-02, 1.14911105e-02, 1.57685429e-02, -1.25705507e-02,
       -2.06649043e-02, 2.50194361e-03, 9.20652295e-04, 1.82895046e-02,
       1.84755009e-02, 6.03986485e-03, 2.77932938e-02, 2.86721382e-02,
       1.21352905e-02, -1.38516584e-02, 9.66435205e-03, 1.65136792e-02,
       -2.95736198e-03, -1.53280690e-03, -2.03165282e-02, 4.17854724e-04,
       1.10282097e-02, 1.48385810e-02, -7.50120124e-03, 5.87291690e-03,
       -8.34776671e-04, 2.14776434e-02, 2.81261001e-02, 1.85402774e-03,
       8.92125256e-03, 7.01745460e-03, 3.79383145e-03, -1.40193347e-02,
       8.93741474e-03, 2.76709069e-02, -5.94058214e-03, -5.78325614e-03,
       -1.96833797e-02, 2.41039926e-03, -1.28282188e-02, 5.14628366e-03,
       -1.17927855e-02, -9.15183779e-03, 1.20672043e-02, -5.97678358e-04,
       -2.79697380e-03, -2.41337717e-02, 2.00011488e-03, 4.57230359e-02,
       3.89879718e-02, 3.07212002e-03, 1.42757595e-02, 3.85407987e-03,
       -2.02417583e-03, 4.48050816e-03, -9.24599916e-03, -9.06099658e-03,
       2.55513340e-02, 1.74117740e-02, -8.62468127e-03, 1.10332472e-02,
       -2.22563441e-03, 5.42481197e-03, -1.19434521e-02, -1.23157902e-02,
       1.31152961e-02, 2.48094220e-02, 4.01457697e-02, 2.85669841e-04,
       -4.15144349e-03, 1.54824378e-02, 1.05303470e-02, 2.77420419e-04,
       -1.26138804e-02, 1.21880714e-02, 1.61869098e-02, 2.68919319e-02,
       -1.18429251e-02, -3.54366913e-03, 1.56767797e-02, -6.79261331e-03,
       2.54250714e-04, 6.20402643e-05, -6.72228355e-03, 1.31442090e-02,
       7.90433399e-03, -1.34414239e-02, 4.48857062e-03, -1.82140060e-03,
       -1.70235932e-02, -1.79111250e-02, -1.73355639e-02, 1.01399678e-03,
       3.33154835e-02, 1.24765169e-02, -1.04929172e-02, -4.00128635e-03,
       -9.60727222e-03, -2.10444373e-03, 1.13676405e-02, -3.34185176e-03,
       9.62708332e-03, 1.71178840e-02, 2.93410365e-02, -1.54656917e-03,
       1.11068861e-04, 4.31294413e-03, 2.74207583e-03, 1.23252748e-02,
       -2.49075890e-03, 2.10256111e-02, 3.19870338e-02, 3.11387479e-02,
       7.74756772e-03, 1.46545861e-02, 3.37385968e-03, -1.28555987e-02,
       -2.17341688e-02, -2.49392092e-02, 1.44848973e-03, 2.33183857e-02,
       -4.48221399e-04, -1.27927903e-02, -6.04959438e-04,
       -2.91192118e-04, -2.94216387e-02, -3.07801403e-02,
       -3.63689288e-02, 1.33929141e-02, 4.25190292e-02, 5.25175128e-03,
       -1.66456737e-02, -1.34443399e-02, -1.84914805e-02, 2.32864153e-02,
       8.34926870e-03, -9.88692883e-03, 5.28104883e-03, 3.08750179e-02,
       1.40740816e-02, 4.54600062e-03, 2.82688104e-02, 2.63665672e-02,
       6.00011181e-03, 5.37622906e-03, -1.36031704e-02, 1.01596573e-02,
       3.16586830e-02, 5.58799191e-04, -7.12096039e-03, 4.85880952e-03,
       -4.48991917e-03, 6.53937133e-03, 1.08806239e-02, 2.68660067e-03,
       8.91566626e-04, -1.67857111e-02, -6.07520295e-03, -3.02596693e-03,
       5.98017825e-03, 1.39870243e-02, 9.88838542e-03, 3.82860401e-03,
       -2.71570636e-03, 3.30847525e-03, -1.02671962e-02, 9.24295187e-03,
       1.39071532e-02, 1.59786493e-02, 2.48209257e-02, 1.40311243e-02,
       2.37242840e-02, 1.59862433e-02, 1.09115932e-02, -2.20545977e-02,
       7.61619722e-03, 3.42129469e-02, 4.41570096e-02, 1.91146433e-02,
       1.56235769e-02, 1.66219659e-02, 2.62929834e-02, 3.27247716e-02,
       -1.57672223e-02, -3.04377056e-03, 2.74953153e-02, 5.02908789e-02,
       4.46993299e-02, 4.28559352e-03, -9.37466230e-03, -1.31739937e-02,
       -3.77684669e-03, 2.98510655e-03, -3.10467137e-03, 9.39512975e-04,
       7.32162781e-03, 1.62819810e-02, -7.83674419e-03, 2.86457315e-03,
       -2.55029704e-02, -5.85208368e-03, 8.64837412e-03, -5.20465383e-03,
       1.24575859e-02, 7.09152315e-03, 5.37966704e-03, 5.36186015e-03,
       8.10063537e-03, 1.41319679e-03, 1.99250765e-02, -1.06395604e-02,
       -2.42605936e-02, -7.19782111e-05, 3.05521619e-02, 3.23681384e-02,
       -3.31583340e-03, 9.77677293e-03, -1.68604124e-02, 1.50104705e-02,
       -3.85341095e-03, -7.34314369e-03, 4.21723817e-03, 3.27230729e-02,
       1.62823815e-02, 6.71483949e-03, 1.66323297e-02, -1.21997939e-02,
       -1.95061346e-03, 2.67292112e-02, -7.67001789e-03, 6.70369761e-03,
       1.68847702e-02, 4.46132198e-03, 4.25674766e-03, 1.86284482e-02,
       -9.34879947e-03, 3.03292472e-04, 1.38346078e-02, -1.27059603e-02,
       -9.71659459e-03, 1.25633655e-02, 3.62034002e-03, 3.19335773e-03,
       8.28767475e-03, -7.03531504e-03, 2.31836271e-02, 1.71691068e-02,
       8.10704753e-03, -2.10256409e-03, 1.48515496e-02, 1.00429833e-03,
       1.03594949e-02, 1.10364947e-02, 2.32374016e-03, 2.11191624e-02,
       7.92937120e-04, -5.10159461e-03, -5.18544577e-03, 8.73255916e-03,
       8.98366608e-03, 9.83578153e-03, 2.06830651e-02, -2.57101143e-03,
       1.24842580e-02, 9.56039876e-03, 3.71333887e-03, -1.12047149e-02,
       1.72599349e-02, 2.22262312e-02, -5.36452793e-03, -8.57041276e-04,
       -1.87776797e-02, -1.95553130e-03, -1.28240911e-02,
       -1.47879068e-02, -2.13205982e-02, -7.63488375e-03, 5.33656403e-03,
       3.21384333e-02, 3.05184945e-02, 1.52763799e-02, 4.02252674e-02,
       5.63543150e-03, 9.19231679e-03, 5.32347150e-03, 1.69208031e-02,
       2.36823410e-02, 9.94364452e-03, 1.09899677e-02, -4.02613636e-03,
       1.91672221e-02, -1.16046742e-02, -1.36106601e-02, -2.06190012e-02,
       -1.01184556e-02, 1.92514842e-03, 1.15870582e-02, -7.97395129e-03,
       -1.99162513e-02, -5.20165125e-03, 1.53983999e-02, 9.37200896e-03,
       -1.36857601e-02, -1.13262869e-02, 1.70247573e-02, 7.38657964e-03,
       -5.71858883e-03, -2.14741603e-02, -1.99219841e-03,
       -2.24298844e-03, 1.29716350e-02, -1.28364116e-02, -1.11323167e-02,
       1.19425301e-02, 2.00603418e-02, -2.48165510e-04, -1.72167718e-02,
       -5.41426241e-03, 7.15148030e-03, 5.36468579e-03, -1.43697821e-02,
       -5.41471131e-03, 2.27914359e-02, 1.64283495e-02, 4.75533074e-03,
       -3.03294975e-02, -1.06688123e-02, 1.75571628e-02, 1.21190185e-02,
       -6.60287030e-03, 1.76833698e-03, 1.50519712e-02, -5.77018876e-03,
       -2.19554384e-03, -1.62207875e-02, 7.59808812e-03, -4.38864157e-03,
       1.37256635e-02, -9.62150190e-03, -4.01773024e-03, -2.65440292e-04,
       2.81649572e-03, -5.96829113e-06, -1.65036302e-02, 1.02730247e-03,
       4.67977207e-03, 9.92330164e-03, 6.53607119e-03, 1.04333032e-02,
       6.43493189e-03, 9.97332204e-03, 1.15946978e-02, -1.90939698e-02,
       -1.18036626e-03, -1.17935939e-02, 3.43814399e-03, -1.86940227e-02,
       -4.73842490e-03, 9.53437015e-03, 3.56978923e-03, 1.65733660e-03,
       -7.66225252e-03, 1.34557365e-02, 3.74527718e-03, 2.38027275e-02,
       9.05727036e-03, 2.00897995e-02, 1.11038741e-02, 1.08255167e-02,
       -2.74977647e-03, -3.21151838e-02, -3.35186198e-02,
       -1.27381748e-02, 4.08827706e-04, -5.01817977e-03, 1.65103525e-02,
       9.91311483e-03, -8.41912907e-03, -2.26403400e-03, -2.17962246e-02,
       -1.63036250e-02, 1.53738372e-02, -1.05289947e-02, -2.40535289e-02,
       -6.47756085e-03, -1.97745971e-02, 9.86536150e-04, 2.36516912e-03,
       -1.42721655e-02, 4.49844543e-03, 1.63773224e-02, 2.48698331e-02,
       1.03499992e-02, 2.00980324e-02, 6.96974713e-03, -7.70393480e-03,
       2.95454692e-02, 1.26064876e-02, 3.10217384e-02, 1.23260543e-02,
       4.65955265e-04, -3.12452987e-02, 1.22539478e-03, -7.47899432e-03,
       -1.25037563e+00 ]

