%YAML:1.0
---
opencv_ml_svm:
   format: 3
   svmType: C_SVC
   kernel:
      type: LINEAR
   C: 1.
   term_criteria: { iterations:100 }
   var_count: 2
   class_count: 2
   class_labels: !!opencv-matrix
      rows: 2
      cols: 1
      dt: i
      data: [ -1, 1 ]
   sv_total: 1
   support_vectors:
      - [ -8.13008100e-03, 8.16326495e-03 ]
   uncompressed_sv_total: 3
   uncompressed_support_vectors:
      - [ 501., 10. ]
      - [ 255., 10. ]
      - [ 501., 255. ]
   decision_functions:
      -
         sv_count: 1
         rho: -2.9915380786460908e+00
         alpha: [ 1. ]
         index: [ 0 ]
